<Root>
  <ActivationFunctions>
    <Fn id="0" name="LogisticFunctionSteep" prob="1" />
  </ActivationFunctions>
  <Networks>
    <Network id="149960" birthGen="3" fitness="41.113122279787035">
      <Nodes>
        <Node type="bias" id="0" />
        <Node type="in" id="1" />
        <Node type="in" id="2" />
        <Node type="in" id="3" />
        <Node type="in" id="4" />
        <Node type="in" id="5" />
        <Node type="in" id="6" />
        <Node type="in" id="7" />
        <Node type="in" id="8" />
        <Node type="in" id="9" />
        <Node type="in" id="10" />
        <Node type="in" id="11" />
        <Node type="in" id="12" />
        <Node type="in" id="13" />
        <Node type="in" id="14" />
        <Node type="in" id="15" />
        <Node type="in" id="16" />
        <Node type="in" id="17" />
        <Node type="in" id="18" />
        <Node type="in" id="19" />
        <Node type="in" id="20" />
        <Node type="in" id="21" />
        <Node type="in" id="22" />
        <Node type="in" id="23" />
        <Node type="in" id="24" />
        <Node type="in" id="25" />
        <Node type="in" id="26" />
        <Node type="in" id="27" />
        <Node type="in" id="28" />
        <Node type="in" id="29" />
        <Node type="in" id="30" />
        <Node type="in" id="31" />
        <Node type="in" id="32" />
        <Node type="in" id="33" />
        <Node type="in" id="34" />
        <Node type="in" id="35" />
        <Node type="in" id="36" />
        <Node type="in" id="37" />
        <Node type="in" id="38" />
        <Node type="in" id="39" />
        <Node type="in" id="40" />
        <Node type="in" id="41" />
        <Node type="in" id="42" />
        <Node type="in" id="43" />
        <Node type="in" id="44" />
        <Node type="in" id="45" />
        <Node type="in" id="46" />
        <Node type="in" id="47" />
        <Node type="out" id="48" />
        <Node type="out" id="49" />
        <Node type="out" id="50" />
        <Node type="out" id="51" />
        <Node type="out" id="52" />
        <Node type="out" id="53" />
        <Node type="out" id="54" />
        <Node type="out" id="55" />
        <Node type="out" id="56" />
        <Node type="out" id="57" />
        <Node type="out" id="58" />
        <Node type="out" id="59" />
        <Node type="out" id="60" />
        <Node type="out" id="61" />
        <Node type="out" id="62" />
        <Node type="out" id="63" />
        <Node type="out" id="64" />
        <Node type="out" id="65" />
        <Node type="out" id="66" />
        <Node type="out" id="67" />
        <Node type="hid" id="1054" />
        <Node type="hid" id="1126" />
        <Node type="hid" id="1154" />
        <Node type="hid" id="1190" />
        <Node type="hid" id="1240" />
        <Node type="hid" id="1295" />
        <Node type="hid" id="1305" />
        <Node type="hid" id="1352" />
        <Node type="hid" id="1355" />
        <Node type="hid" id="1389" />
        <Node type="hid" id="1425" />
        <Node type="hid" id="1447" />
        <Node type="hid" id="1540" />
        <Node type="hid" id="1622" />
        <Node type="hid" id="1639" />
        <Node type="hid" id="1653" />
        <Node type="hid" id="1659" />
        <Node type="hid" id="1697" />
        <Node type="hid" id="1745" />
        <Node type="hid" id="1780" />
        <Node type="hid" id="1805" />
        <Node type="hid" id="1814" />
        <Node type="hid" id="1880" />
        <Node type="hid" id="1995" />
        <Node type="hid" id="2002" />
        <Node type="hid" id="2052" />
        <Node type="hid" id="2085" />
        <Node type="hid" id="2159" />
        <Node type="hid" id="2336" />
        <Node type="hid" id="2381" />
        <Node type="hid" id="2410" />
        <Node type="hid" id="2442" />
        <Node type="hid" id="2573" />
        <Node type="hid" id="2638" />
        <Node type="hid" id="2657" />
        <Node type="hid" id="2673" />
        <Node type="hid" id="2690" />
        <Node type="hid" id="2698" />
        <Node type="hid" id="2811" />
        <Node type="hid" id="2852" />
        <Node type="hid" id="2925" />
        <Node type="hid" id="2939" />
        <Node type="hid" id="2963" />
        <Node type="hid" id="2966" />
        <Node type="hid" id="2989" />
        <Node type="hid" id="3014" />
        <Node type="hid" id="3083" />
        <Node type="hid" id="3130" />
        <Node type="hid" id="3222" />
        <Node type="hid" id="3228" />
        <Node type="hid" id="3257" />
        <Node type="hid" id="3373" />
        <Node type="hid" id="3379" />
        <Node type="hid" id="3449" />
        <Node type="hid" id="3494" />
        <Node type="hid" id="3544" />
        <Node type="hid" id="3616" />
        <Node type="hid" id="3629" />
        <Node type="hid" id="3635" />
        <Node type="hid" id="3665" />
        <Node type="hid" id="3669" />
        <Node type="hid" id="3677" />
        <Node type="hid" id="3735" />
        <Node type="hid" id="3749" />
        <Node type="hid" id="3791" />
        <Node type="hid" id="3829" />
        <Node type="hid" id="3866" />
        <Node type="hid" id="3892" />
        <Node type="hid" id="3905" />
        <Node type="hid" id="3911" />
        <Node type="hid" id="4010" />
        <Node type="hid" id="4031" />
        <Node type="hid" id="4035" />
        <Node type="hid" id="4110" />
        <Node type="hid" id="4128" />
        <Node type="hid" id="4174" />
        <Node type="hid" id="4179" />
        <Node type="hid" id="4328" />
        <Node type="hid" id="4364" />
        <Node type="hid" id="4370" />
        <Node type="hid" id="4405" />
        <Node type="hid" id="4426" />
        <Node type="hid" id="4437" />
        <Node type="hid" id="4443" />
        <Node type="hid" id="4566" />
        <Node type="hid" id="4580" />
        <Node type="hid" id="4608" />
        <Node type="hid" id="4791" />
        <Node type="hid" id="4970" />
        <Node type="hid" id="4973" />
        <Node type="hid" id="4984" />
        <Node type="hid" id="5003" />
        <Node type="hid" id="5122" />
        <Node type="hid" id="5140" />
        <Node type="hid" id="5155" />
        <Node type="hid" id="5163" />
        <Node type="hid" id="5182" />
        <Node type="hid" id="5185" />
        <Node type="hid" id="5193" />
        <Node type="hid" id="5217" />
        <Node type="hid" id="5231" />
        <Node type="hid" id="5303" />
        <Node type="hid" id="5311" />
        <Node type="hid" id="5316" />
        <Node type="hid" id="5362" />
        <Node type="hid" id="5374" />
        <Node type="hid" id="5391" />
        <Node type="hid" id="5415" />
        <Node type="hid" id="5439" />
        <Node type="hid" id="5462" />
        <Node type="hid" id="5500" />
        <Node type="hid" id="5506" />
        <Node type="hid" id="5511" />
        <Node type="hid" id="5521" />
        <Node type="hid" id="5524" />
        <Node type="hid" id="5530" />
        <Node type="hid" id="5540" />
        <Node type="hid" id="5564" />
        <Node type="hid" id="5567" />
        <Node type="hid" id="5582" />
        <Node type="hid" id="5626" />
        <Node type="hid" id="5639" />
        <Node type="hid" id="5646" />
        <Node type="hid" id="5662" />
        <Node type="hid" id="5696" />
        <Node type="hid" id="5711" />
        <Node type="hid" id="5729" />
        <Node type="hid" id="5763" />
        <Node type="hid" id="5801" />
        <Node type="hid" id="5811" />
        <Node type="hid" id="5839" />
        <Node type="hid" id="5855" />
        <Node type="hid" id="5883" />
        <Node type="hid" id="5895" />
        <Node type="hid" id="5906" />
        <Node type="hid" id="5949" />
        <Node type="hid" id="5964" />
        <Node type="hid" id="5967" />
        <Node type="hid" id="5994" />
        <Node type="hid" id="6005" />
        <Node type="hid" id="6008" />
        <Node type="hid" id="6018" />
        <Node type="hid" id="6050" />
        <Node type="hid" id="6070" />
        <Node type="hid" id="6083" />
        <Node type="hid" id="6090" />
        <Node type="hid" id="6112" />
        <Node type="hid" id="6168" />
        <Node type="hid" id="6180" />
        <Node type="hid" id="6262" />
        <Node type="hid" id="6350" />
        <Node type="hid" id="6385" />
        <Node type="hid" id="6507" />
        <Node type="hid" id="6574" />
        <Node type="hid" id="6577" />
        <Node type="hid" id="6586" />
        <Node type="hid" id="6600" />
        <Node type="hid" id="6654" />
        <Node type="hid" id="6666" />
        <Node type="hid" id="6669" />
        <Node type="hid" id="6690" />
        <Node type="hid" id="6880" />
        <Node type="hid" id="6903" />
        <Node type="hid" id="6934" />
        <Node type="hid" id="6979" />
        <Node type="hid" id="7016" />
        <Node type="hid" id="7029" />
        <Node type="hid" id="7049" />
        <Node type="hid" id="7052" />
        <Node type="hid" id="7056" />
        <Node type="hid" id="7068" />
        <Node type="hid" id="7102" />
        <Node type="hid" id="7122" />
        <Node type="hid" id="7129" />
        <Node type="hid" id="7137" />
        <Node type="hid" id="7168" />
        <Node type="hid" id="7199" />
        <Node type="hid" id="7241" />
        <Node type="hid" id="7252" />
        <Node type="hid" id="7286" />
        <Node type="hid" id="7326" />
        <Node type="hid" id="7353" />
        <Node type="hid" id="7360" />
        <Node type="hid" id="7366" />
        <Node type="hid" id="7401" />
        <Node type="hid" id="7462" />
        <Node type="hid" id="7475" />
        <Node type="hid" id="7496" />
        <Node type="hid" id="7504" />
        <Node type="hid" id="7508" />
        <Node type="hid" id="7524" />
        <Node type="hid" id="7556" />
        <Node type="hid" id="7572" />
        <Node type="hid" id="7593" />
        <Node type="hid" id="7621" />
        <Node type="hid" id="7655" />
        <Node type="hid" id="7658" />
        <Node type="hid" id="7663" />
        <Node type="hid" id="7692" />
        <Node type="hid" id="7703" />
        <Node type="hid" id="7718" />
        <Node type="hid" id="7741" />
        <Node type="hid" id="7746" />
        <Node type="hid" id="7749" />
        <Node type="hid" id="7771" />
        <Node type="hid" id="7815" />
        <Node type="hid" id="7824" />
        <Node type="hid" id="7855" />
        <Node type="hid" id="7863" />
        <Node type="hid" id="7885" />
        <Node type="hid" id="7896" />
        <Node type="hid" id="7908" />
        <Node type="hid" id="7926" />
        <Node type="hid" id="7934" />
        <Node type="hid" id="7982" />
      </Nodes>
      <Connections>
        <Con id="746" src="33" tgt="66" wght="-0.5751559050569067" />
        <Con id="849" src="39" tgt="49" wght="-3.790396823890436" />
        <Con id="1261" src="5" tgt="48" wght="-0.2510363313025065" />
        <Con id="1402" src="58" tgt="58" wght="-4.520519841715521" />
        <Con id="1446" src="64" tgt="49" wght="-4.8305132905980575" />
        <Con id="1795" src="62" tgt="64" wght="-4.469252145785962" />
        <Con id="2543" src="1745" tgt="54" wght="-3.8807580456221964" />
        <Con id="2692" src="2690" tgt="1880" wght="0.5643254728646203" />
        <Con id="2882" src="54" tgt="1814" wght="2.6100470825060196" />
        <Con id="3005" src="51" tgt="2852" wght="3.747726777891022" />
        <Con id="3132" src="3130" tgt="1447" wght="-2.176717097917793" />
        <Con id="3215" src="2939" tgt="2925" wght="-0.20257086889718606" />
        <Con id="3241" src="1540" tgt="1805" wght="-4.259022997581902" />
        <Con id="3291" src="2573" tgt="1745" wght="-2.028075516028344" />
        <Con id="3430" src="2657" tgt="2052" wght="3.407853991143368" />
        <Con id="3509" src="3083" tgt="1154" wght="3.0755652636765314" />
        <Con id="3546" src="3544" tgt="2966" wght="-2.6644451543007355" />
        <Con id="3571" src="45" tgt="63" wght="-0.9226860203152139" />
        <Con id="3636" src="24" tgt="3635" wght="3.449077289667033" />
        <Con id="3641" src="2336" tgt="2410" wght="-0.3305762038316342" />
        <Con id="3769" src="38" tgt="57" wght="-4.431130698315017" />
        <Con id="3868" src="3866" tgt="3665" wght="-3.308556777012245" />
        <Con id="3913" src="3911" tgt="53" wght="1.5907267889969567" />
        <Con id="4056" src="41" tgt="60" wght="1.821046562010029" />
        <Con id="4111" src="1805" tgt="4110" wght="-1.3817244331564877" />
        <Con id="4116" src="1352" tgt="57" wght="0.06976648510190753" />
        <Con id="4181" src="4179" tgt="49" wght="4.789718174305516" />
        <Con id="4275" src="3749" tgt="65" wght="2.449716118984624" />
        <Con id="4289" src="4031" tgt="3829" wght="-3.9779275602165622" />
        <Con id="4344" src="54" tgt="3373" wght="3.04969460955888" />
        <Con id="4407" src="4405" tgt="1653" wght="4.108993543063723" />
        <Con id="4422" src="16" tgt="1240" wght="0.413524432729597" />
        <Con id="4487" src="46" tgt="1805" wght="3.4701454735205304" />
        <Con id="4649" src="26" tgt="3892" wght="4.847675335389242" />
        <Con id="4736" src="1425" tgt="63" wght="1.4359446467197545" />
        <Con id="4793" src="4791" tgt="65" wght="-0.6285455383055005" />
        <Con id="4882" src="3629" tgt="4370" wght="-4.85748601995994" />
        <Con id="4914" src="4110" tgt="2442" wght="1.2096550644661763" />
        <Con id="4986" src="4984" tgt="50" wght="4.941763656595314" />
        <Con id="5005" src="5003" tgt="4608" wght="-3.3479210923228044" />
        <Con id="5022" src="3749" tgt="50" wght="4.6738048409719095" />
        <Con id="5071" src="4128" tgt="61" wght="4.424613936764" />
        <Con id="5123" src="3379" tgt="5122" wght="-0.06320101258365546" />
        <Con id="5157" src="5155" tgt="2811" wght="0.03304227456066622" />
        <Con id="5183" src="2939" tgt="5182" wght="2.081553344585389" />
        <Con id="5184" src="5182" tgt="3257" wght="0.6691347294419658" />
        <Con id="5186" src="38" tgt="5185" wght="4.801409492370474" />
        <Con id="5187" src="5185" tgt="3677" wght="3.7521223726473836" />
        <Con id="5232" src="14" tgt="5231" wght="4.360926507461887" />
        <Con id="5247" src="1425" tgt="5122" wght="4.7364702397052145" />
        <Con id="5272" src="2085" tgt="4179" wght="-0.6003712219564437" />
        <Con id="5317" src="62" tgt="5316" wght="2.7685984030582325" />
        <Con id="5337" src="2002" tgt="4405" wght="-0.8173273819270541" />
        <Con id="5351" src="13" tgt="57" wght="4.463633882625649" />
        <Con id="5355" src="2673" tgt="59" wght="3.3557924748246317" />
        <Con id="5363" src="51" tgt="5362" wght="-3.0041897360912264" />
        <Con id="5392" src="1190" tgt="5391" wght="-4.54515418118739" />
        <Con id="5393" src="5391" tgt="4110" wght="0.7954631425913261" />
        <Con id="5416" src="65" tgt="5415" wght="4.761068904943906" />
        <Con id="5433" src="4035" tgt="4174" wght="0.8278591633783993" />
        <Con id="5449" src="2442" tgt="1622" wght="4.632258161267063" />
        <Con id="5453" src="4328" tgt="1653" wght="1.3736732900574167" />
        <Con id="5481" src="1352" tgt="3083" wght="-3.1792678416377194" />
        <Con id="5485" src="4791" tgt="4035" wght="-1.4472929359079163" />
        <Con id="5508" src="5506" tgt="1880" wght="1.6513370709358572" />
        <Con id="5509" src="1305" tgt="4364" wght="1.7009267415106182" />
        <Con id="5520" src="44" tgt="3677" wght="-3.630367089702586" />
        <Con id="5523" src="5521" tgt="2381" wght="4.474028115791538" />
        <Con id="5531" src="37" tgt="5530" wght="-0.03913559823004635" />
        <Con id="5565" src="4370" tgt="5564" wght="-1.0238314606118026" />
        <Con id="5569" src="5567" tgt="5303" wght="4.641722947413603" />
        <Con id="5583" src="1814" tgt="5582" wght="3.0187062553777273" />
        <Con id="5596" src="5462" tgt="63" wght="-0.8020415200702193" />
        <Con id="5640" src="1" tgt="5639" wght="1.7989809687894003" />
        <Con id="5641" src="5639" tgt="3014" wght="-4.054103341513591" />
        <Con id="5648" src="5646" tgt="56" wght="-1.4182039727881772" />
        <Con id="5652" src="50" tgt="2381" wght="3.8287975428064263" />
        <Con id="5659" src="3222" tgt="54" wght="2.9237579203788715" />
        <Con id="5663" src="2690" tgt="5662" wght="4.83225416885546" />
        <Con id="5664" src="5662" tgt="3829" wght="3.4570998984912777" />
        <Con id="5697" src="5524" tgt="5696" wght="-0.237353079534432" />
        <Con id="5698" src="5696" tgt="1622" wght="4.994087420636875" />
        <Con id="5707" src="1697" tgt="4010" wght="4.483054286124675" />
        <Con id="5730" src="5511" tgt="5729" wght="4.452842478139059" />
        <Con id="5740" src="4128" tgt="5163" wght="3.158294345303795" />
        <Con id="5765" src="5763" tgt="3449" wght="4.985490538712067" />
        <Con id="5782" src="4970" tgt="4580" wght="-1.8193176049960658" />
        <Con id="5800" src="5163" tgt="2410" wght="-0.44773709721802835" />
        <Con id="5802" src="5711" tgt="5801" wght="-3.3764801562811773" />
        <Con id="5810" src="1995" tgt="1447" wght="-4.705079867911722" />
        <Con id="5812" src="29" tgt="5811" wght="-1.9651176676575222" />
        <Con id="5813" src="5811" tgt="1622" wght="4.994955075781362" />
        <Con id="5822" src="3449" tgt="1352" wght="0.0172484531102767" />
        <Con id="5838" src="1653" tgt="59" wght="-0.05214401986314772" />
        <Con id="5864" src="4031" tgt="1295" wght="-0.059769565314236404" />
        <Con id="5870" src="5530" tgt="4405" wght="-1.8233223808348875" />
        <Con id="5884" src="4973" tgt="5883" wght="-1.9944458112973724" />
        <Con id="5907" src="5895" tgt="5906" wght="4.790727184021391" />
        <Con id="5930" src="27" tgt="1352" wght="-4.366904809241" />
        <Con id="5935" src="3222" tgt="2939" wght="0.01609430981661071" />
        <Con id="5950" src="3" tgt="5949" wght="-4.998593591457627" />
        <Con id="5959" src="4174" tgt="4970" wght="-2.7755060710205357" />
        <Con id="5965" src="66" tgt="5964" wght="4.298622190713466" />
        <Con id="5966" src="5964" tgt="67" wght="3.0707897767402708" />
        <Con id="5972" src="62" tgt="2698" wght="-1.1690618644442772" />
        <Con id="5995" src="1352" tgt="5994" wght="-0.48643734349903966" />
        <Con id="6009" src="5500" tgt="6008" wght="0.17401620078696045" />
        <Con id="6010" src="6008" tgt="2410" wght="-3.4413687083060305" />
        <Con id="6019" src="2690" tgt="6018" wght="1.0569886246586324" />
        <Con id="6021" src="20" tgt="1126" wght="-1.2902198561835478" />
        <Con id="6052" src="6050" tgt="1295" wght="3.5286823994039493" />
        <Con id="6058" src="1639" tgt="2963" wght="-1.8490836763111456" />
        <Con id="6072" src="6070" tgt="2002" wght="2.5747993378129577" />
        <Con id="6079" src="4128" tgt="2573" wght="-3.633966007043583" />
        <Con id="6091" src="53" tgt="6090" wght="-3.3205641054049746" />
        <Con id="6092" src="6090" tgt="2989" wght="2.7511798366080074" />
        <Con id="6094" src="43" tgt="5626" wght="4.06024943511656" />
        <Con id="6105" src="37" tgt="2159" wght="-2.3938363815262447" />
        <Con id="6107" src="17" tgt="5811" wght="3.939581737503767" />
        <Con id="6114" src="6112" tgt="53" wght="4.870535288227403" />
        <Con id="6115" src="5895" tgt="1425" wght="4.585515900805414" />
        <Con id="6138" src="14" tgt="1780" wght="3.910921661700924" />
        <Con id="6139" src="4179" tgt="3629" wght="3.409760195883847" />
        <Con id="6170" src="6168" tgt="55" wght="2.8436798647725032" />
        <Con id="6171" src="42" tgt="60" wght="-2.060429818730148" />
        <Con id="6179" src="6" tgt="5696" wght="-1.5722524561207931" />
        <Con id="6181" src="39" tgt="6180" wght="-4.379093707235059" />
        <Con id="6182" src="6180" tgt="1780" wght="4.972387742532044" />
        <Con id="6200" src="5729" tgt="60" wght="4.539709078330163" />
        <Con id="6201" src="5564" tgt="5711" wght="-0.7438749385051742" />
        <Con id="6207" src="5155" tgt="60" wght="2.147696537749957" />
        <Con id="6233" src="44" tgt="3829" wght="-0.08295028962838438" />
        <Con id="6263" src="67" tgt="6262" wght="0.9164962469814752" />
        <Con id="6265" src="48" tgt="5140" wght="4.303543061455007" />
        <Con id="6270" src="4179" tgt="2925" wght="-0.5011137306810932" />
        <Con id="6307" src="5646" tgt="5217" wght="0.3992065741058653" />
        <Con id="6310" src="1054" tgt="59" wght="1.7338715783832168" />
        <Con id="6338" src="1355" tgt="1780" wght="0.07650255554996785" />
        <Con id="6348" src="3228" tgt="5855" wght="-2.2908121473768475" />
        <Con id="6351" src="5801" tgt="6350" wght="-2.1406828243367735" />
        <Con id="6365" src="17" tgt="5439" wght="-1.0471301872938068" />
        <Con id="6379" src="3629" tgt="3905" wght="-2.168145415866447" />
        <Con id="6387" src="6385" tgt="5439" wght="-2.613057156952552" />
        <Con id="6401" src="36" tgt="6180" wght="1.08543987137208" />
        <Con id="6423" src="52" tgt="2852" wght="3.4772615577500456" />
        <Con id="6451" src="5646" tgt="1126" wght="4.8219364909267055" />
        <Con id="6458" src="4566" tgt="3222" wght="0.2387873814825292" />
        <Con id="6492" src="4443" tgt="60" wght="-4.849440739519092" />
        <Con id="6508" src="54" tgt="6507" wght="3.1738801986282468" />
        <Con id="6509" src="6507" tgt="3616" wght="0.5058145862671956" />
        <Con id="6541" src="2336" tgt="1054" wght="3.001983406897578" />
        <Con id="6554" src="4031" tgt="5626" wght="-1.6891300153422517" />
        <Con id="6575" src="5439" tgt="6574" wght="4.885603918954954" />
        <Con id="6587" src="5540" tgt="6586" wght="4.997014867958726" />
        <Con id="6588" src="6586" tgt="1126" wght="2.169379395271352" />
        <Con id="6594" src="5626" tgt="2336" wght="3.042958339126778" />
        <Con id="6626" src="3866" tgt="52" wght="-1.0497734963328198" />
        <Con id="6641" src="4110" tgt="5122" wght="2.25272164356073" />
        <Con id="6655" src="5311" tgt="6654" wght="-3.2391336383959803" />
        <Con id="6668" src="6666" tgt="1540" wght="4.927922676638949" />
        <Con id="6670" src="5193" tgt="6669" wght="1.56641823060095" />
        <Con id="6671" src="6669" tgt="3494" wght="-2.2213240005248758" />
        <Con id="6688" src="6050" tgt="3635" wght="4.834998433343814" />
        <Con id="6692" src="6690" tgt="1352" wght="-2.6558951231052874" />
        <Con id="6710" src="28" tgt="4970" wght="-0.06279740191320407" />
        <Con id="6731" src="4426" tgt="50" wght="4.341912767324679" />
        <Con id="6745" src="3222" tgt="5415" wght="4.33676743776895" />
        <Con id="6752" src="6507" tgt="6654" wght="-4.85814213005385" />
        <Con id="6758" src="3669" tgt="58" wght="4.142588068179114" />
        <Con id="6760" src="5540" tgt="5582" wght="-0.3020432293558688" />
        <Con id="6763" src="28" tgt="5217" wght="-4.837248862540635" />
        <Con id="6774" src="2573" tgt="4437" wght="0.04929991557461672" />
        <Con id="6785" src="49" tgt="52" wght="-0.06310524749446443" />
        <Con id="6813" src="5193" tgt="1054" wght="-0.37523818844198936" />
        <Con id="6820" src="4110" tgt="48" wght="3.281734579127283" />
        <Con id="6828" src="23" tgt="5540" wght="0.05065148955103941" />
        <Con id="6838" src="60" tgt="4110" wght="-4.614055941557616" />
        <Con id="6857" src="6350" tgt="3635" wght="-2.163289036058757" />
        <Con id="6863" src="53" tgt="2336" wght="-0.016731424672897285" />
        <Con id="6869" src="4031" tgt="3677" wght="-4.1774289037356" />
        <Con id="6882" src="6880" tgt="1389" wght="3.7658279515529074" />
        <Con id="6887" src="4984" tgt="5964" wght="-3.5918729871045696" />
        <Con id="6904" src="67" tgt="6903" wght="-2.1176005232228325" />
        <Con id="6905" src="6903" tgt="6112" wght="-2.6247728318522197" />
        <Con id="6932" src="4437" tgt="3494" wght="-2.2001096103022797" />
        <Con id="6935" src="5839" tgt="6934" wght="4.992417239691898" />
        <Con id="6957" src="4791" tgt="4010" wght="-4.542145382789451" />
        <Con id="6973" src="5362" tgt="3905" wght="0.5954333666407308" />
        <Con id="6980" src="1653" tgt="6979" wght="4.666768578475011" />
        <Con id="6981" src="6979" tgt="5949" wght="2.985440003256046" />
        <Con id="6988" src="3544" tgt="1352" wght="3.0565908634188355" />
        <Con id="6995" src="4128" tgt="2925" wght="0.010214655866477048" />
        <Con id="7003" src="6" tgt="3791" wght="-0.05427166873888327" />
        <Con id="7018" src="7016" tgt="6050" wght="-4.7379485574740094" />
        <Con id="7028" src="5140" tgt="5316" wght="4.519853987462714" />
        <Con id="7030" src="4970" tgt="7029" wght="4.391164268665914" />
        <Con id="7031" src="7029" tgt="2852" wght="4.603525574086804" />
        <Con id="7034" src="3222" tgt="55" wght="-2.0650433185780814" />
        <Con id="7042" src="5003" tgt="61" wght="-0.04856550648322726" />
        <Con id="7050" src="8" tgt="7049" wght="-3.1283168608724248" />
        <Con id="7051" src="7049" tgt="3905" wght="4.947433366624623" />
        <Con id="7053" src="1659" tgt="7052" wght="3.15942822377178" />
        <Con id="7058" src="7056" tgt="4608" wght="0.8008083568681233" />
        <Con id="7069" src="7052" tgt="7068" wght="0.6384454177628087" />
        <Con id="7071" src="1154" tgt="1622" wght="0.5362072403663427" />
        <Con id="7075" src="5140" tgt="6979" wght="1.9365123344433168" />
        <Con id="7079" src="3735" tgt="5140" wght="0.06361761591138332" />
        <Con id="7094" src="6507" tgt="7056" wght="1.2067003074189597" />
        <Con id="7103" src="6934" tgt="7102" wght="4.995322897552566" />
        <Con id="7104" src="7102" tgt="1659" wght="5" />
        <Con id="7105" src="3616" tgt="6880" wght="3.377337222938669" />
        <Con id="7123" src="12" tgt="7122" wght="4.175882109510829" />
        <Con id="7124" src="7122" tgt="67" wght="4.972576623712671" />
        <Con id="7130" src="5811" tgt="7129" wght="2.1952962482632126" />
        <Con id="7131" src="7129" tgt="5964" wght="4.984022352577892" />
        <Con id="7138" src="1305" tgt="7137" wght="2.533306345615505" />
        <Con id="7139" src="7137" tgt="5524" wght="-1.184788263248886" />
        <Con id="7143" src="2811" tgt="6180" wght="-3.3227589372644144" />
        <Con id="7166" src="0" tgt="3735" wght="3.432306151653935" />
        <Con id="7169" src="27" tgt="7168" wght="-1.187607756150587" />
        <Con id="7170" src="7168" tgt="5711" wght="4.9908520180608855" />
        <Con id="7197" src="50" tgt="5140" wght="-1.133174863058032" />
        <Con id="7242" src="4328" tgt="7241" wght="1.9896146389963685" />
        <Con id="7243" src="7241" tgt="1814" wght="-2.6796073837805645" />
        <Con id="7245" src="66" tgt="3222" wght="-0.001608587075175267" />
        <Con id="7253" src="3449" tgt="7252" wght="1.8177229164566608" />
        <Con id="7254" src="7252" tgt="4179" wght="5" />
        <Con id="7255" src="64" tgt="63" wght="2.2238525439832966" />
        <Con id="7258" src="1240" tgt="5500" wght="-4.621720287875174" />
        <Con id="7288" src="7286" tgt="50" wght="4.989463334977685" />
        <Con id="7293" src="39" tgt="2410" wght="0.47984743644794703" />
        <Con id="7294" src="19" tgt="52" wght="-0.430339990355908" />
        <Con id="7295" src="4328" tgt="5811" wght="-3.4417881849079857" />
        <Con id="7315" src="3791" tgt="5182" wght="2.944486218472295" />
        <Con id="7321" src="4128" tgt="2690" wght="0.027885366449901004" />
        <Con id="7327" src="3665" tgt="7326" wght="-1.9458344836455592" />
        <Con id="7328" src="7326" tgt="7016" wght="5" />
        <Con id="7330" src="63" tgt="1697" wght="-2.2104399942572215" />
        <Con id="7339" src="36" tgt="2963" wght="0.0007443030578576683" />
        <Con id="7348" src="6070" tgt="2410" wght="0.02258678959157985" />
        <Con id="7354" src="5967" tgt="7353" wght="-3.245153001619084" />
        <Con id="7357" src="7056" tgt="3257" wght="1.5081433554284907" />
        <Con id="7361" src="39" tgt="7360" wght="3.9526817266268353" />
        <Con id="7380" src="6168" tgt="3749" wght="-3.460395042973401" />
        <Con id="7402" src="5217" tgt="7401" wght="4.035156756466448" />
        <Con id="7422" src="1659" tgt="6903" wght="2.4040745226458635" />
        <Con id="7431" src="3373" tgt="3257" wght="-3.1325509625488155" />
        <Con id="7451" src="6090" tgt="5303" wght="-4.180415341135343" />
        <Con id="7463" src="19" tgt="7462" wght="3.165259072203388" />
        <Con id="7464" src="7462" tgt="6666" wght="4.985894930893081" />
        <Con id="7469" src="3669" tgt="49" wght="-0.344272568709421" />
        <Con id="7471" src="5193" tgt="61" wght="-0.5124644982665161" />
        <Con id="7477" src="7475" tgt="3735" wght="4.9725852270201845" />
        <Con id="7485" src="21" tgt="3735" wght="-4.701987547171366" />
        <Con id="7490" src="5182" tgt="5696" wght="-3.7435948338838525" />
        <Con id="7491" src="5415" tgt="3829" wght="-0.004388653508123719" />
        <Con id="7497" src="24" tgt="7496" wght="0.5030225068933393" />
        <Con id="7498" src="7496" tgt="6083" wght="5" />
        <Con id="7500" src="7326" tgt="7475" wght="4.021585613273699" />
        <Con id="7505" src="4031" tgt="7504" wght="3.9929326624180606" />
        <Con id="7506" src="7504" tgt="7286" wght="1.6575399332443992" />
        <Con id="7509" src="7168" tgt="7508" wght="3.974016049276684" />
        <Con id="7510" src="7508" tgt="5729" wght="1.4639106914814035" />
        <Con id="7513" src="42" tgt="1054" wght="-0.034216281933843344" />
        <Con id="7525" src="5524" tgt="7524" wght="-2.9846032091454986" />
        <Con id="7526" src="7524" tgt="5311" wght="4.984516716053621" />
        <Con id="7548" src="7524" tgt="6005" wght="2.705277538706099" />
        <Con id="7558" src="7556" tgt="1054" wght="5" />
        <Con id="7562" src="7102" tgt="5311" wght="-0.0723882490346189" />
        <Con id="7573" src="14" tgt="7572" wght="3.0463000594537224" />
        <Con id="7574" src="7572" tgt="6050" wght="-4.887415856590952" />
        <Con id="7585" src="1639" tgt="7122" wght="1.2369767714037907" />
        <Con id="7595" src="7593" tgt="5140" wght="4.981524646376944" />
        <Con id="7605" src="29" tgt="5506" wght="-0.05401339930337497" />
        <Con id="7607" src="5193" tgt="4984" wght="0.03644633415182645" />
        <Con id="7612" src="2442" tgt="5994" wght="-2.001997890965612" />
        <Con id="7622" src="3228" tgt="7621" wght="1.4200827901681086" />
        <Con id="7623" src="7621" tgt="53" wght="4.987171193138028" />
        <Con id="7625" src="19" tgt="1295" wght="0.03371207925297057" />
        <Con id="7643" src="5391" tgt="61" wght="0.6587939073961075" />
        <Con id="7650" src="9" tgt="48" wght="-4.342806861186798" />
        <Con id="7657" src="7655" tgt="7366" wght="4.9695244387335835" />
        <Con id="7659" src="3" tgt="7658" wght="1.4041637757664938" />
        <Con id="7660" src="7658" tgt="55" wght="5" />
        <Con id="7664" src="1540" tgt="7663" wght="2.177378634891381" />
        <Con id="7673" src="4437" tgt="7068" wght="0.3504326145757948" />
        <Con id="7677" src="5729" tgt="7122" wght="4.951598995772767" />
        <Con id="7687" src="5696" tgt="6600" wght="2.2641662286552307" />
        <Con id="7693" src="2657" tgt="7692" wght="0.006348045252556399" />
        <Con id="7694" src="7692" tgt="4608" wght="4.987362495985049" />
        <Con id="7700" src="4031" tgt="6577" wght="0.9763974730585913" />
        <Con id="7704" src="5906" tgt="7703" wght="-2.718739430176143" />
        <Con id="7705" src="7703" tgt="3635" wght="4.990199573831755" />
        <Con id="7706" src="1305" tgt="7524" wght="0.016027722218426584" />
        <Con id="7707" src="2673" tgt="4443" wght="0.03837999605388729" />
        <Con id="7714" src="5639" tgt="5155" wght="-1.5140299533593071" />
        <Con id="7717" src="0" tgt="2939" wght="-0.019600296723864003" />
        <Con id="7719" src="5801" tgt="7718" wght="0.004249364455525378" />
        <Con id="7720" src="7718" tgt="5217" wght="4.992454012310306" />
        <Con id="7725" src="58" tgt="5582" wght="-1.4648881301527499" />
        <Con id="7730" src="22" tgt="5567" wght="0.6950833438133441" />
        <Con id="7742" src="7353" tgt="7741" wght="3.178279717631949" />
        <Con id="7743" src="7741" tgt="64" wght="4.978670065257699" />
        <Con id="7744" src="5564" tgt="3629" wght="0.019700339199023247" />
        <Con id="7747" src="1355" tgt="7746" wght="2.2797449115332657" />
        <Con id="7748" src="7746" tgt="3014" wght="4.993705621378284" />
        <Con id="7750" src="1995" tgt="7749" wght="-3.7995280938404594" />
        <Con id="7751" src="7749" tgt="1697" wght="4.993217031153291" />
        <Con id="7759" src="7746" tgt="5564" wght="0.05363177465846701" />
        <Con id="7764" src="4128" tgt="5906" wght="-0.03165568366473308" />
        <Con id="7766" src="2085" tgt="2963" wght="0.009775775836281357" />
        <Con id="7769" src="2085" tgt="7129" wght="-0.016225266654681304" />
        <Con id="7772" src="1425" tgt="7771" wght="3.75134875404185" />
        <Con id="7773" src="7771" tgt="4110" wght="-1.2696266197999502" />
        <Con id="7816" src="47" tgt="7815" wght="3.0119447457282424" />
        <Con id="7817" src="7815" tgt="3749" wght="4.988648143129175" />
        <Con id="7825" src="25" tgt="7824" wght="1.9545613145122673" />
        <Con id="7826" src="7824" tgt="2638" wght="4.953477120611513" />
        <Con id="7827" src="1805" tgt="7718" wght="0.008299957007591396" />
        <Con id="7834" src="7824" tgt="1126" wght="1.143784269583277" />
        <Con id="7835" src="1389" tgt="7718" wght="0.012235795310125162" />
        <Con id="7836" src="2159" tgt="2638" wght="2.4920919925345135" />
        <Con id="7842" src="7746" tgt="5163" wght="-3.9391223510643893" />
        <Con id="7849" src="5217" tgt="1639" wght="0.04335570644837342" />
        <Con id="7856" src="2966" tgt="7855" wght="-2.487414549107092" />
        <Con id="7857" src="7855" tgt="6600" wght="4.994784428537282" />
        <Con id="7861" src="23" tgt="4370" wght="1.8150409538362078" />
        <Con id="7864" src="5163" tgt="7863" wght="-4.809680951307731" />
        <Con id="7865" src="7863" tgt="5462" wght="5" />
        <Con id="7866" src="7556" tgt="7663" wght="0.044144045789569" />
        <Con id="7868" src="4443" tgt="7741" wght="0.0032553265748804477" />
        <Con id="7872" src="1240" tgt="7016" wght="1.2134336730432305" />
        <Con id="7875" src="2442" tgt="2052" wght="-0.04319236338615509" />
        <Con id="7886" src="25" tgt="7885" wght="4.517496970082163" />
        <Con id="7887" src="7885" tgt="5763" wght="5" />
        <Con id="7890" src="7718" tgt="6880" wght="0.02072153548480689" />
        <Con id="7894" src="13" tgt="7703" wght="0.039383369497950856" />
        <Con id="7897" src="1425" tgt="7896" wght="1.9353814176824276" />
        <Con id="7898" src="7896" tgt="1639" wght="5" />
        <Con id="7907" src="24" tgt="6070" wght="-0.0371361253172898" />
        <Con id="7909" src="7199" tgt="7908" wght="-4.946822812513208" />
        <Con id="7910" src="7908" tgt="7593" wght="-4.663514955352643" />
        <Con id="7911" src="3130" tgt="7137" wght="0.8940543399612477" />
        <Con id="7922" src="5811" tgt="4110" wght="0.04306424092413707" />
        <Con id="7923" src="60" tgt="5439" wght="0.0020861329664481954" />
        <Con id="7927" src="4608" tgt="7926" wght="0.5528414620341296" />
        <Con id="7928" src="7926" tgt="3665" wght="5" />
        <Con id="7935" src="5374" tgt="7934" wght="-1.378660798962859" />
        <Con id="7936" src="7934" tgt="56" wght="5" />
        <Con id="7952" src="5626" tgt="5801" wght="-0.034580259758204" />
        <Con id="7957" src="29" tgt="7029" wght="-2.004514954424952" />
        <Con id="7960" src="3669" tgt="7934" wght="3.5508110775967783" />
        <Con id="7966" src="5462" tgt="6112" wght="0.011188648069656582" />
        <Con id="7981" src="5662" tgt="3544" wght="-0.008456979784831276" />
        <Con id="7983" src="6577" tgt="7982" wght="0.25726738990973425" />
        <Con id="7984" src="7982" tgt="5182" wght="5" />
      </Connections>
    </Network>
  </Networks>
</Root>